svm_type one_class
kernel_type rbf
gamma 0.001
nr_class 2
total_sv 14
rho 10.450375502289578
SV
1.0 1:-0.777778 2:1.0 4:-1.0 6:-1.0 7:-0.975309 8:-1.0 9:1.0 
0.04462058643598391 1:-0.777778 2:1.0 4:-1.0 6:1.0 7:-1.0 8:-1.0 9:1.0 
1.0 1:0.333333 2:1.0 4:-1.0 6:1.0 7:-0.975309 9:1.0 
1.0 1:-1.0 2:1.0 4:-1.0 6:1.0 7:0.654321 8:-1.0 9:-1.0 
0.9236306541791723 1:1.0 2:-1.0 4:-1.0 6:-1.0 7:-1.0 8:-1.0 9:-1.0 
0.6809601071704774 1:-1.0 2:-1.0 4:-1.0 6:1.0 7:1.0 8:-1.0 9:-1.0 
0.9553794135640161 1:-1.0 2:-1.0 4:-1.0 6:1.0 7:1.0 8:-1.0 9:-1.0 
0.47379148270882476 1:-0.555556 2:-1.0 4:-1.0 6:1.0 7:-1.0 8:1.0 9:1.0 
1.0 1:-0.333333 2:-1.0 4:-1.0 6:-1.0 7:-1.0 8:1.0 9:1.0 
1.0 1:-0.333333 2:-1.0 4:-1.0 6:1.0 7:-1.0 8:1.0 9:1.0 
0.3676323537198542 1:-1.0 2:-1.0 4:1.0 6:-1.0 7:-1.0 8:-1.0 9:-1.0 
0.1139854022216718 1:-1.0 2:-1.0 4:1.0 6:1.0 7:-1.0 8:-1.0 9:-1.0 
1.0 1:-1.0 2:-1.0 4:1.0 6:-1.0 7:-1.0 8:-1.0 9:-1.0 
1.0 1:-1.0 2:-1.0 4:1.0 6:-1.0 7:-1.0 8:-1.0 9:-1.0 
