svm_type one_class
kernel_type rbf
gamma 0.001
nr_class 2
total_sv 9
rho 5.271127598495322
SV
0.3260000000000005 1:0.2 2:1.0 4:-1.0 6:-1.0 7:-0.936842 8:-1.0 9:1.0 
0.5956169069903998 1:0.6 2:1.0 4:-1.0 6:-1.0 7:-1.0 8:-1.0 9:-1.0 
0.11917550459962703 1:-0.6 2:-1.0 4:1.0 6:1.0 7:-1.0 8:-1.0 9:1.0 
0.777303397998301 1:-0.6 2:-1.0 4:1.0 6:-1.0 7:-1.0 8:-1.0 9:1.0 
1.0 1:0.2 2:-1.0 4:-1.0 6:-1.0 7:-1.0 8:1.0 9:1.0 
1.0 1:-1.0 2:1.0 4:1.0 6:1.0 7:-0.936842 8:-1.0 9:-1.0 
0.10352109740207202 1:-0.6 2:1.0 4:-1.0 6:1.0 7:-1.0 8:-1.0 9:1.0 
0.4043830930096 1:1.0 2:-1.0 4:-1.0 6:1.0 7:-0.957895 8:-1.0 9:-1.0 
1.0 1:-1.0 2:-1.0 4:-1.0 6:1.0 7:1.0 8:-1.0 9:-1.0 
